<?xml version="1.0"?>
<opencv_storage>
<cascade>
  <stageType>BOOST</stageType>
  <featureType>HAAR</featureType>
  <height>50</height>
  <width>50</width>
  <stageParams>
    <boostType>GAB</boostType>
    <minHitRate>9.9500000476837158e-01</minHitRate>
    <maxFalseAlarm>5.0000000000000000e-01</maxFalseAlarm>
    <weightTrimRate>9.4999999999999996e-01</weightTrimRate>
    <maxDepth>1</maxDepth>
    <maxWeakCount>100</maxWeakCount></stageParams>
  <featureParams>
    <maxCatCount>0</maxCatCount>
    <featSize>1</featSize>
    <mode>BASIC</mode></featureParams>
  <stageNum>10</stageNum>
  <stages>
    <!-- stage 0 -->
    <_>
      <maxWeakCount>8</maxWeakCount>
      <stageThreshold>-1.1069852113723755e+00</stageThreshold>
      <weakClassifiers>
        <_>
          <internalNodes>
            0 -1 18 5.0310902297496796e-03</internalNodes>
          <leafValues>
            -3.3625218272209167e-01 7.4488699436187744e-01</leafValues></_>
        <_>
          <internalNodes>
            0 -1 149 -9.6608623862266541e-03</internalNodes>
          <leafValues>
            6.6952413320541382e-01 -1.9698171317577362e-01</leafValues></_>
        <_>
          <internalNodes>
            0 -1 9 -5.8051357045769691e-03</internalNodes>
          <leafValues>
            6.4067924022674561e-01 -2.3164883255958557e-01</leafValues></_>
        <_>
          <internalNodes>
            0 -1 7 -9.1632772237062454e-03</internalNodes>
          <leafValues>
            6.5031999349594116e-01 -2.6310721039772034e-01</leafValues></_>
        <_>
          <internalNodes>
            0 -1 51 -3.9467085152864456e-03</internalNodes>
          <leafValues>
            4.9654462933540344e-01 -2.4353811144828796e-01</leafValues></_>
        <_>
          <internalNodes>
            0 -1 73 8.8282430078834295e-04</internalNodes>
          <leafValues>
            2.1470940113067627e-01 -5.9070342779159546e-01</leafValues></_>
        <_>
          <internalNodes>
            0 -1 101 -4.2707994580268860e-03</internalNodes>
          <leafValues>
            -8.8103294372558594e-01 1.4484423398971558e-01</leafValues></_>
        <_>
          <internalNodes>
            0 -1 86 -3.7128163967281580e-04</internalNodes>
          <leafValues>
            5.7787001132965088e-01 -2.5610384345054626e-01</leafValues></_></weakClassifiers></_>
    <!-- stage 1 -->
    <_>
      <maxWeakCount>13</maxWeakCount>
      <stageThreshold>-1.0068230628967285e+00</stageThreshold>
      <weakClassifiers>
        <_>
          <internalNodes>
            0 -1 17 4.7105816192924976e-03</internalNodes>
          <leafValues>
            -1.4265233278274536e-01 7.4704051017761230e-01</leafValues></_>
        <_>
          <internalNodes>
            0 -1 77 1.8301202217116952e-03</internalNodes>
          <leafValues>
            2.6708534359931946e-01 -6.8647831678390503e-01</leafValues></_>
        <_>
          <internalNodes>
            0 -1 157 -6.7794666392728686e-04</internalNodes>
          <leafValues>
            4.3721759319305420e-01 -3.1211015582084656e-01</leafValues></_>
        <_>
          <internalNodes>
            0 -1 24 1.5896272379904985e-03</internalNodes>
          <leafValues>
            -4.1517019271850586e-01 3.0836462974548340e-01</leafValues></_>
        <_>
          <internalNodes>
            0 -1 62 8.3487657830119133e-03</internalNodes>
          <leafValues>
            -2.6997035741806030e-01 4.9291321635246277e-01</leafValues></_>
        <_>
          <internalNodes>
            0 -1 59 7.9591115936636925e-03</internalNodes>
          <leafValues>
            1.2358165532350540e-01 -7.9341518878936768e-01</leafValues></_>
        <_>
          <internalNodes>
            0 -1 12 2.1319263614714146e-03</internalNodes>
          <leafValues>
            -2.4233686923980713e-01 4.7568380832672119e-01</leafValues></_>
        <_>
          <internalNodes>
            0 -1 49 -4.6729555469937623e-04</internalNodes>
          <leafValues>
            4.2786231637001038e-01 -2.5725653767585754e-01</leafValues></_>
        <_>
          <internalNodes>
            0 -1 8 -1.2001391500234604e-02</internalNodes>
          <leafValues>
            6.2538081407546997e-01 -1.5699972212314606e-01</leafValues></_>
        <_>
          <internalNodes>
            0 -1 67 7.1470573311671615e-04</internalNodes>
          <leafValues>
            1.3488371670246124e-01 -9.2931503057479858e-01</leafValues></_>
        <_>
          <internalNodes>
            0 -1 132 -1.5954533591866493e-03</internalNodes>
          <leafValues>
            3.7695077061653137e-01 -2.7178320288658142e-01</leafValues></_>
        <_>
          <internalNodes>
            0 -1 75 5.3936173208057880e-03</internalNodes>
          <leafValues>
            9.1320127248764038e-02 -9.5524042844772339e-01</leafValues></_>
        <_>
          <internalNodes>
            0 -1 150 -5.4014939814805984e-04</internalNodes>
          <leafValues>
            4.5794305205345154e-01 -2.1322940289974213e-01</leafValues></_></weakClassifiers></_>
    <!-- stage 2 -->
    <_>
      <maxWeakCount>15</maxWeakCount>
      <stageThreshold>-7.1841967105865479e-01</stageThreshold>
      <weakClassifiers>
        <_>
          <internalNodes>
            0 -1 20 5.3788842633366585e-03</internalNodes>
          <leafValues>
            -1.7870035767555237e-01 6.3319236040115356e-01</leafValues></_>
        <_>
          <internalNodes>
            0 -1 158 -2.2000572644174099e-03</internalNodes>
          <leafValues>
            5.1659172773361206e-01 -2.1645042300224304e-01</leafValues></_>
        <_>
          <internalNodes>
            0 -1 45 -3.2901738304644823e-03</internalNodes>
          <leafValues>
            3.7620404362678528e-01 -2.3476222157478333e-01</leafValues></_>
        <_>
          <internalNodes>
            0 -1 35 -1.2994578108191490e-02</internalNodes>
          <leafValues>
            5.4769170284271240e-01 -1.6674378514289856e-01</leafValues></_>
        <_>
          <internalNodes>
            0 -1 146 -3.2381690107285976e-03</internalNodes>
          <leafValues>
            4.3911352753639221e-01 -2.1614828705787659e-01</leafValues></_>
        <_>
          <internalNodes>
            0 -1 30 -6.6387662664055824e-03</internalNodes>
          <leafValues>
            3.7549453973770142e-01 -2.5557008385658264e-01</leafValues></_>
        <_>
          <internalNodes>
            0 -1 47 -1.6669977456331253e-02</internalNodes>
          <leafValues>
            -8.6331456899642944e-01 1.2860795855522156e-01</leafValues></_>
        <_>
          <internalNodes>
            0 -1 93 -3.1774495728313923e-03</internalNodes>
          <leafValues>
            3.1819453835487366e-01 -3.0778151750564575e-01</leafValues></_>
        <_>
          <internalNodes>
            0 -1 112 -3.5576263908296824e-03</internalNodes>
          <leafValues>
            -8.6068904399871826e-01 9.7219310700893402e-02</leafValues></_>
        <_>
          <internalNodes>
            0 -1 116 -4.4744409387931228e-04</internalNodes>
          <leafValues>
            5.4140883684158325e-01 -1.8736732006072998e-01</leafValues></_>
        <_>
          <internalNodes>
            0 -1 72 3.2807353418320417e-03</internalNodes>
          <leafValues>
            1.1141520738601685e-01 -8.1507796049118042e-01</leafValues></_>
        <_>
          <internalNodes>
            0 -1 109 -2.0884897094219923e-04</internalNodes>
          <leafValues>
            4.8700106143951416e-01 -1.9010311365127563e-01</leafValues></_>
        <_>
          <internalNodes>
            0 -1 46 1.8764575361274183e-04</internalNodes>
          <leafValues>
            1.3042683899402618e-01 -7.8642505407333374e-01</leafValues></_>
        <_>
          <internalNodes>
            0 -1 111 9.7915530204772949e-04</internalNodes>
          <leafValues>
            7.2497211396694183e-02 -8.6126023530960083e-01</leafValues></_>
        <_>
          <internalNodes>
            0 -1 110 -7.0716661866754293e-04</internalNodes>
          <leafValues>
            -8.4479176998138428e-01 8.4074676036834717e-02</leafValues></_></weakClassifiers></_>
    <!-- stage 3 -->
    <_>
      <maxWeakCount>16</maxWeakCount>
      <stageThreshold>-8.2002896070480347e-01</stageThreshold>
      <weakClassifiers>
        <_>
          <internalNodes>
            0 -1 41 6.7692878656089306e-04</internalNodes>
          <leafValues>
            -7.1428574621677399e-02 6.3785046339035034e-01</leafValues></_>
        <_>
          <internalNodes>
            0 -1 159 3.6619482561945915e-03</internalNodes>
          <leafValues>
            -2.0251251757144928e-01 5.1639324426651001e-01</leafValues></_>
        <_>
          <internalNodes>
            0 -1 61 5.0409522373229265e-04</internalNodes>
          <leafValues>
            -1.6771468520164490e-01 5.6663495302200317e-01</leafValues></_>
        <_>
          <internalNodes>
            0 -1 103 3.3579784212633967e-04</internalNodes>
          <leafValues>
            -2.0640517771244049e-01 5.2060991525650024e-01</leafValues></_>
        <_>
          <internalNodes>
            0 -1 104 -2.4946755729615688e-04</internalNodes>
          <leafValues>
            4.7391578555107117e-01 -1.9139865040779114e-01</leafValues></_>
        <_>
          <internalNodes>
            0 -1 42 2.8039852622896433e-04</internalNodes>
          <leafValues>
            -2.9000189900398254e-01 3.2598742842674255e-01</leafValues></_>
        <_>
          <internalNodes>
            0 -1 88 -5.7463774282950908e-05</internalNodes>
          <leafValues>
            3.4678760170936584e-01 -2.5992020964622498e-01</leafValues></_>
        <_>
          <internalNodes>
            0 -1 66 3.3408303279429674e-03</internalNodes>
          <leafValues>
            1.4807327091693878e-01 -6.3821911811828613e-01</leafValues></_>
        <_>
          <internalNodes>
            0 -1 10 -6.3977204263210297e-03</internalNodes>
          <leafValues>
            3.1418782472610474e-01 -3.1358909606933594e-01</leafValues></_>
        <_>
          <internalNodes>
            0 -1 120 3.8271280936896801e-04</internalNodes>
          <leafValues>
            1.2544116377830505e-01 -7.3066258430480957e-01</leafValues></_>
        <_>
          <internalNodes>
            0 -1 155 1.8901435658335686e-02</internalNodes>
          <leafValues>
            -1.6184200346469879e-01 6.0376065969467163e-01</leafValues></_>
        <_>
          <internalNodes>
            0 -1 43 5.5962830781936646e-02</internalNodes>
          <leafValues>
            -1.3036775588989258e-01 6.6517448425292969e-01</leafValues></_>
        <_>
          <internalNodes>
            0 -1 68 -7.2385231032967567e-03</internalNodes>
          <leafValues>
            -7.7188730239868164e-01 1.4825315773487091e-01</leafValues></_>
        <_>
          <internalNodes>
            0 -1 119 -5.0368532538414001e-04</internalNodes>
          <leafValues>
            -8.7238556146621704e-01 6.2634855508804321e-02</leafValues></_>
        <_>
          <internalNodes>
            0 -1 135 1.6715994570404291e-04</internalNodes>
          <leafValues>
            -1.8818528950214386e-01 5.0426471233367920e-01</leafValues></_>
        <_>
          <internalNodes>
            0 -1 83 -2.3974229407031089e-04</internalNodes>
          <leafValues>
            4.0355297923088074e-01 -1.9693803787231445e-01</leafValues></_></weakClassifiers></_>
    <!-- stage 4 -->
    <_>
      <maxWeakCount>17</maxWeakCount>
      <stageThreshold>-8.6455506086349487e-01</stageThreshold>
      <weakClassifiers>
        <_>
          <internalNodes>
            0 -1 137 -2.0178097765892744e-03</internalNodes>
          <leafValues>
            -7.5423729419708252e-01 4.2619392275810242e-01</leafValues></_>
        <_>
          <internalNodes>
            0 -1 17 8.1776548177003860e-03</internalNodes>
          <leafValues>
            -2.3661297559738159e-01 5.0211727619171143e-01</leafValues></_>
        <_>
          <internalNodes>
            0 -1 57 4.3009859509766102e-03</internalNodes>
          <leafValues>
            1.9073022902011871e-01 -5.1934415102005005e-01</leafValues></_>
        <_>
          <internalNodes>
            0 -1 39 -1.9240453839302063e-02</internalNodes>
          <leafValues>
            -6.7969387769699097e-01 1.0941708087921143e-01</leafValues></_>
        <_>
          <internalNodes>
            0 -1 153 4.5332806184887886e-03</internalNodes>
          <leafValues>
            -2.0905245840549469e-01 4.1859951615333557e-01</leafValues></_>
        <_>
          <internalNodes>
            0 -1 26 -1.1997258290648460e-02</internalNodes>
          <leafValues>
            6.1811619997024536e-01 -1.4215378463268280e-01</leafValues></_>
        <_>
          <internalNodes>
            0 -1 142 2.1046210895292461e-04</internalNodes>
          <leafValues>
            1.0830993205308914e-01 -7.4457991123199463e-01</leafValues></_>
        <_>
          <internalNodes>
            0 -1 6 -2.8474042192101479e-03</internalNodes>
          <leafValues>
            -7.6734411716461182e-01 9.0010337531566620e-02</leafValues></_>
        <_>
          <internalNodes>
            0 -1 13 2.8228005394339561e-03</internalNodes>
          <leafValues>
            -1.5885894000530243e-01 5.6421655416488647e-01</leafValues></_>
        <_>
          <internalNodes>
            0 -1 25 8.0520787741988897e-04</internalNodes>
          <leafValues>
            1.1378738284111023e-01 -7.8289926052093506e-01</leafValues></_>
        <_>
          <internalNodes>
            0 -1 11 -2.4048159830272198e-03</internalNodes>
          <leafValues>
            -7.3923116922378540e-01 8.2193769514560699e-02</leafValues></_>
        <_>
          <internalNodes>
            0 -1 134 1.6171977040357888e-04</internalNodes>
          <leafValues>
            9.9957935512065887e-02 -6.6427153348922729e-01</leafValues></_>
        <_>
          <internalNodes>
            0 -1 140 -1.0579240042716265e-03</internalNodes>
          <leafValues>
            3.9303684234619141e-01 -2.2851049900054932e-01</leafValues></_>
        <_>
          <internalNodes>
            0 -1 113 3.3182109473273158e-04</internalNodes>
          <leafValues>
            1.1327218264341354e-01 -7.9413557052612305e-01</leafValues></_>
        <_>
          <internalNodes>
            0 -1 85 -7.4650574242696166e-04</internalNodes>
          <leafValues>
            3.4655132889747620e-01 -2.5921651721000671e-01</leafValues></_>
        <_>
          <internalNodes>
            0 -1 114 -9.7344163805246353e-04</internalNodes>
          <leafValues>
            -7.1580362319946289e-01 1.0970385372638702e-01</leafValues></_>
        <_>
          <internalNodes>
            0 -1 107 1.5300966333597898e-04</internalNodes>
          <leafValues>
            -1.8753109872341156e-01 4.6255853772163391e-01</leafValues></_></weakClassifiers></_>
    <!-- stage 5 -->
    <_>
      <maxWeakCount>16</maxWeakCount>
      <stageThreshold>-8.0961173772811890e-01</stageThreshold>
      <weakClassifiers>
        <_>
          <internalNodes>
            0 -1 53 -3.8184193545021117e-04</internalNodes>
          <leafValues>
            5.6201350688934326e-01 -7.7353216707706451e-02</leafValues></_>
        <_>
          <internalNodes>
            0 -1 138 5.8647617697715759e-03</internalNodes>
          <leafValues>
            -2.2517172992229462e-01 4.5235285162925720e-01</leafValues></_>
        <_>
          <internalNodes>
            0 -1 69 -7.6592224650084972e-04</internalNodes>
          <leafValues>
            -7.2602719068527222e-01 1.4584642648696899e-01</leafValues></_>
        <_>
          <internalNodes>
            0 -1 100 -1.8326472491025925e-04</internalNodes>
          <leafValues>
            3.7146601080894470e-01 -2.3848231136798859e-01</leafValues></_>
        <_>
          <internalNodes>
            0 -1 2 -3.1998030841350555e-02</internalNodes>
          <leafValues>
            3.1453827023506165e-01 -2.8309977054595947e-01</leafValues></_>
        <_>
          <internalNodes>
            0 -1 79 -2.0446900743991137e-03</internalNodes>
          <leafValues>
            -6.5505188703536987e-01 1.2244226783514023e-01</leafValues></_>
        <_>
          <internalNodes>
            0 -1 21 -3.1311060301959515e-03</internalNodes>
          <leafValues>
            3.9344665408134460e-01 -2.2040332853794098e-01</leafValues></_>
        <_>
          <internalNodes>
            0 -1 28 -3.3220987766981125e-02</internalNodes>
          <leafValues>
            6.4784723520278931e-01 -1.3265317678451538e-01</leafValues></_>
        <_>
          <internalNodes>
            0 -1 19 -2.1871081844437867e-04</internalNodes>
          <leafValues>
            -8.2960242033004761e-01 1.1003510653972626e-01</leafValues></_>
        <_>
          <internalNodes>
            0 -1 19 2.3446077830158174e-04</internalNodes>
          <leafValues>
            8.1482820212841034e-02 -8.7691563367843628e-01</leafValues></_>
        <_>
          <internalNodes>
            0 -1 126 -3.2483428367413580e-04</internalNodes>
          <leafValues>
            4.1388708353042603e-01 -2.0993652939796448e-01</leafValues></_>
        <_>
          <internalNodes>
            0 -1 122 3.5645937896333635e-04</internalNodes>
          <leafValues>
            -1.8296587467193604e-01 4.7252312302589417e-01</leafValues></_>
        <_>
          <internalNodes>
            0 -1 143 -3.0688179656863213e-02</internalNodes>
          <leafValues>
            5.1334536075592041e-01 -1.4832052588462830e-01</leafValues></_>
        <_>
          <internalNodes>
            0 -1 144 -8.8030681945383549e-04</internalNodes>
          <leafValues>
            3.7789282202720642e-01 -2.0994922518730164e-01</leafValues></_>
        <_>
          <internalNodes>
            0 -1 96 1.8785509746521711e-04</internalNodes>
          <leafValues>
            1.3886085152626038e-01 -6.8915498256683350e-01</leafValues></_>
        <_>
          <internalNodes>
            0 -1 56 1.1632715177256614e-04</internalNodes>
          <leafValues>
            9.0897463262081146e-02 -7.0924323797225952e-01</leafValues></_></weakClassifiers></_>
    <!-- stage 6 -->
    <_>
      <maxWeakCount>20</maxWeakCount>
      <stageThreshold>-7.7534765005111694e-01</stageThreshold>
      <weakClassifiers>
        <_>
          <internalNodes>
            0 -1 15 6.2320018187165260e-03</internalNodes>
          <leafValues>
            4.3307088315486908e-02 6.3279134035110474e-01</leafValues></_>
        <_>
          <internalNodes>
            0 -1 160 -1.5826629532966763e-04</internalNodes>
          <leafValues>
            4.3076097965240479e-01 -1.9586887955665588e-01</leafValues></_>
        <_>
          <internalNodes>
            0 -1 37 -1.8143181223422289e-03</internalNodes>
          <leafValues>
            5.5815571546554565e-01 -1.5157511830329895e-01</leafValues></_>
        <_>
          <internalNodes>
            0 -1 4 -2.6183154433965683e-02</internalNodes>
          <leafValues>
            4.2291361093521118e-01 -2.0982103049755096e-01</leafValues></_>
        <_>
          <internalNodes>
            0 -1 40 -2.7467084582895041e-03</internalNodes>
          <leafValues>
            3.5182103514671326e-01 -2.4396437406539917e-01</leafValues></_>
        <_>
          <internalNodes>
            0 -1 81 3.9309361018240452e-03</internalNodes>
          <leafValues>
            1.2942610681056976e-01 -6.8375718593597412e-01</leafValues></_>
        <_>
          <internalNodes>
            0 -1 145 -3.9705578237771988e-03</internalNodes>
          <leafValues>
            4.9886596202850342e-01 -1.6236518323421478e-01</leafValues></_>
        <_>
          <internalNodes>
            0 -1 141 5.1772833103314042e-04</internalNodes>
          <leafValues>
            1.0710782557725906e-01 -7.2799992561340332e-01</leafValues></_>
        <_>
          <internalNodes>
            0 -1 82 -3.3490646164864302e-03</internalNodes>
          <leafValues>
            -5.4206949472427368e-01 1.4597499370574951e-01</leafValues></_>
        <_>
          <internalNodes>
            0 -1 128 1.0701293649617583e-04</internalNodes>
          <leafValues>
            -2.0833197236061096e-01 4.0976175665855408e-01</leafValues></_>
        <_>
          <internalNodes>
            0 -1 127 -2.8796610422432423e-04</internalNodes>
          <leafValues>
            4.9466067552566528e-01 -1.9713683426380157e-01</leafValues></_>
        <_>
          <internalNodes>
            0 -1 90 -4.6055726706981659e-03</internalNodes>
          <leafValues>
            -7.3306530714035034e-01 1.4218360185623169e-01</leafValues></_>
        <_>
          <internalNodes>
            0 -1 121 -5.0940958317369223e-04</internalNodes>
          <leafValues>
            3.4697306156158447e-01 -2.3562701046466827e-01</leafValues></_>
        <_>
          <internalNodes>
            0 -1 33 5.4590817308053374e-04</internalNodes>
          <leafValues>
            -3.4375384449958801e-01 2.7327558398246765e-01</leafValues></_>
        <_>
          <internalNodes>
            0 -1 54 -2.5126425316557288e-04</internalNodes>
          <leafValues>
            3.1136661767959595e-01 -2.7011460065841675e-01</leafValues></_>
        <_>
          <internalNodes>
            0 -1 70 1.1110040359199047e-03</internalNodes>
          <leafValues>
            9.6803963184356689e-02 -8.5400408506393433e-01</leafValues></_>
        <_>
          <internalNodes>
            0 -1 63 7.1188830770552158e-04</internalNodes>
          <leafValues>
            -1.7583471536636353e-01 4.9573776125907898e-01</leafValues></_>
        <_>
          <internalNodes>
            0 -1 125 3.1439890153706074e-04</internalNodes>
          <leafValues>
            1.0396077483892441e-01 -8.3895695209503174e-01</leafValues></_>
        <_>
          <internalNodes>
            0 -1 151 -2.5078868493437767e-03</internalNodes>
          <leafValues>
            4.1472059488296509e-01 -2.0298051834106445e-01</leafValues></_>
        <_>
          <internalNodes>
            0 -1 32 -1.5225240495055914e-03</internalNodes>
          <leafValues>
            -6.4229828119277954e-01 1.4297553896903992e-01</leafValues></_></weakClassifiers></_>
    <!-- stage 7 -->
    <_>
      <maxWeakCount>18</maxWeakCount>
      <stageThreshold>-8.2388818264007568e-01</stageThreshold>
      <weakClassifiers>
        <_>
          <internalNodes>
            0 -1 23 2.2160209482535720e-04</internalNodes>
          <leafValues>
            -1.1493018269538879e-01 5.3504109382629395e-01</leafValues></_>
        <_>
          <internalNodes>
            0 -1 108 2.9486810672096908e-04</internalNodes>
          <leafValues>
            -1.5091818571090698e-01 5.5157381296157837e-01</leafValues></_>
        <_>
          <internalNodes>
            0 -1 108 -2.3961364058777690e-04</internalNodes>
          <leafValues>
            5.5133080482482910e-01 -1.8500687181949615e-01</leafValues></_>
        <_>
          <internalNodes>
            0 -1 139 5.9382058680057526e-04</internalNodes>
          <leafValues>
            -2.9499655961990356e-01 3.0485808849334717e-01</leafValues></_>
        <_>
          <internalNodes>
            0 -1 84 1.9844656810164452e-02</internalNodes>
          <leafValues>
            -1.9587711989879608e-01 5.8239656686782837e-01</leafValues></_>
        <_>
          <internalNodes>
            0 -1 36 2.1056368947029114e-01</internalNodes>
          <leafValues>
            -9.9110238254070282e-02 7.4526435136795044e-01</leafValues></_>
        <_>
          <internalNodes>
            0 -1 97 -8.6550549895036966e-05</internalNodes>
          <leafValues>
            3.3115574717521667e-01 -2.6082593202590942e-01</leafValues></_>
        <_>
          <internalNodes>
            0 -1 148 -1.4584196032956243e-03</internalNodes>
          <leafValues>
            5.6456011533737183e-01 -1.4050540328025818e-01</leafValues></_>
        <_>
          <internalNodes>
            0 -1 74 -3.1934520229697227e-03</internalNodes>
          <leafValues>
            -7.0135855674743652e-01 1.5090826153755188e-01</leafValues></_>
        <_>
          <internalNodes>
            0 -1 129 1.8284273392055184e-04</internalNodes>
          <leafValues>
            -1.9169580936431885e-01 5.2710604667663574e-01</leafValues></_>
        <_>
          <internalNodes>
            0 -1 22 -1.7385184764862061e-04</internalNodes>
          <leafValues>
            -7.1398925781250000e-01 1.1818176507949829e-01</leafValues></_>
        <_>
          <internalNodes>
            0 -1 130 -2.4162408953998238e-04</internalNodes>
          <leafValues>
            4.1931185126304626e-01 -2.0026712119579315e-01</leafValues></_>
        <_>
          <internalNodes>
            0 -1 115 8.8429311290383339e-04</internalNodes>
          <leafValues>
            1.0822247713804245e-01 -8.6741286516189575e-01</leafValues></_>
        <_>
          <internalNodes>
            0 -1 156 1.7496963962912560e-02</internalNodes>
          <leafValues>
            -1.6090118885040283e-01 5.9024697542190552e-01</leafValues></_>
        <_>
          <internalNodes>
            0 -1 95 1.8972557154484093e-04</internalNodes>
          <leafValues>
            -1.5277129411697388e-01 4.6503543853759766e-01</leafValues></_>
        <_>
          <internalNodes>
            0 -1 65 1.8459248822182417e-03</internalNodes>
          <leafValues>
            1.3624940812587738e-01 -6.1955171823501587e-01</leafValues></_>
        <_>
          <internalNodes>
            0 -1 94 -1.8541823374107480e-04</internalNodes>
          <leafValues>
            3.9526695013046265e-01 -2.2190631926059723e-01</leafValues></_>
        <_>
          <internalNodes>
            0 -1 117 -7.4250891339033842e-04</internalNodes>
          <leafValues>
            -8.1630337238311768e-01 9.3844875693321228e-02</leafValues></_></weakClassifiers></_>
    <!-- stage 8 -->
    <_>
      <maxWeakCount>21</maxWeakCount>
      <stageThreshold>-8.5627502202987671e-01</stageThreshold>
      <weakClassifiers>
        <_>
          <internalNodes>
            0 -1 31 1.6505689127370715e-03</internalNodes>
          <leafValues>
            -1.0677083581686020e-01 4.8476701974868774e-01</leafValues></_>
        <_>
          <internalNodes>
            0 -1 92 4.2280548950657248e-04</internalNodes>
          <leafValues>
            -1.1636048555374146e-01 5.7876837253570557e-01</leafValues></_>
        <_>
          <internalNodes>
            0 -1 102 1.4281156472861767e-04</internalNodes>
          <leafValues>
            -1.8745933473110199e-01 4.6084940433502197e-01</leafValues></_>
        <_>
          <internalNodes>
            0 -1 34 -6.2460293993353844e-03</internalNodes>
          <leafValues>
            6.2638497352600098e-01 -1.1788664013147354e-01</leafValues></_>
        <_>
          <internalNodes>
            0 -1 154 4.7026472166180611e-03</internalNodes>
          <leafValues>
            -2.7192917466163635e-01 3.6201620101928711e-01</leafValues></_>
        <_>
          <internalNodes>
            0 -1 76 9.3176192604005337e-04</internalNodes>
          <leafValues>
            1.3424199819564819e-01 -5.6546556949615479e-01</leafValues></_>
        <_>
          <internalNodes>
            0 -1 99 -1.9298987172078341e-04</internalNodes>
          <leafValues>
            4.2952924966812134e-01 -1.7703147232532501e-01</leafValues></_>
        <_>
          <internalNodes>
            0 -1 16 -9.5171402790583670e-05</internalNodes>
          <leafValues>
            -5.9453856945037842e-01 1.3516253232955933e-01</leafValues></_>
        <_>
          <internalNodes>
            0 -1 78 -5.8129435637965798e-04</internalNodes>
          <leafValues>
            5.5871123075485229e-01 -1.4245618879795074e-01</leafValues></_>
        <_>
          <internalNodes>
            0 -1 1 -4.1246633976697922e-02</internalNodes>
          <leafValues>
            5.6013131141662598e-01 -1.6960628330707550e-01</leafValues></_>
        <_>
          <internalNodes>
            0 -1 89 5.3385496139526367e-03</internalNodes>
          <leafValues>
            1.2623015046119690e-01 -7.4996334314346313e-01</leafValues></_>
        <_>
          <internalNodes>
            0 -1 44 -9.3049593269824982e-03</internalNodes>
          <leafValues>
            4.0036332607269287e-01 -2.0677395164966583e-01</leafValues></_>
        <_>
          <internalNodes>
            0 -1 71 -1.3767796917818487e-04</internalNodes>
          <leafValues>
            -7.0125532150268555e-01 1.1490514874458313e-01</leafValues></_>
        <_>
          <internalNodes>
            0 -1 3 2.6274676201865077e-04</internalNodes>
          <leafValues>
            1.1275625973939896e-01 -5.5786085128784180e-01</leafValues></_>
        <_>
          <internalNodes>
            0 -1 152 -4.7436886234208941e-04</internalNodes>
          <leafValues>
            5.3615719079971313e-01 -1.4421133697032928e-01</leafValues></_>
        <_>
          <internalNodes>
            0 -1 147 5.3181301336735487e-04</internalNodes>
          <leafValues>
            -1.9173172116279602e-01 3.7552705407142639e-01</leafValues></_>
        <_>
          <internalNodes>
            0 -1 52 -1.9528590142726898e-02</internalNodes>
          <leafValues>
            -6.7600697278976440e-01 1.3048757612705231e-01</leafValues></_>
        <_>
          <internalNodes>
            0 -1 0 -1.4000995724927634e-04</internalNodes>
          <leafValues>
            -6.8378430604934692e-01 9.2504993081092834e-02</leafValues></_>
        <_>
          <internalNodes>
            0 -1 60 2.5230340543203056e-04</internalNodes>
          <leafValues>
            -1.9081033766269684e-01 3.8802412152290344e-01</leafValues></_>
        <_>
          <internalNodes>
            0 -1 58 -4.2310805292800069e-04</internalNodes>
          <leafValues>
            4.2111966013908386e-01 -2.0153206586837769e-01</leafValues></_>
        <_>
          <internalNodes>
            0 -1 118 2.1863603615202010e-04</internalNodes>
          <leafValues>
            8.2717858254909515e-02 -9.1390365362167358e-01</leafValues></_></weakClassifiers></_>
    <!-- stage 9 -->
    <_>
      <maxWeakCount>23</maxWeakCount>
      <stageThreshold>-8.7888890504837036e-01</stageThreshold>
      <weakClassifiers>
        <_>
          <internalNodes>
            0 -1 29 8.3969458937644958e-03</internalNodes>
          <leafValues>
            8.0801554024219513e-02 6.0220235586166382e-01</leafValues></_>
        <_>
          <internalNodes>
            0 -1 64 4.0619559586048126e-03</internalNodes>
          <leafValues>
            1.6222560405731201e-01 -6.0106801986694336e-01</leafValues></_>
        <_>
          <internalNodes>
            0 -1 162 -8.7745836935937405e-04</internalNodes>
          <leafValues>
            3.1983011960983276e-01 -2.5181543827056885e-01</leafValues></_>
        <_>
          <internalNodes>
            0 -1 87 -8.5756334010511637e-04</internalNodes>
          <leafValues>
            5.3842699527740479e-01 -1.3423594832420349e-01</leafValues></_>
        <_>
          <internalNodes>
            0 -1 27 -1.1021338403224945e-01</internalNodes>
          <leafValues>
            6.1804294586181641e-01 -1.5424977242946625e-01</leafValues></_>
        <_>
          <internalNodes>
            0 -1 133 -5.2539375610649586e-04</internalNodes>
          <leafValues>
            5.1674771308898926e-01 -1.2969751656055450e-01</leafValues></_>
        <_>
          <internalNodes>
            0 -1 98 -3.1481595942750573e-04</internalNodes>
          <leafValues>
            5.0600761175155640e-01 -1.6225706040859222e-01</leafValues></_>
        <_>
          <internalNodes>
            0 -1 48 -1.7885103821754456e-02</internalNodes>
          <leafValues>
            -7.5933462381362915e-01 1.2966787815093994e-01</leafValues></_>
        <_>
          <internalNodes>
            0 -1 50 2.6552582858130336e-04</internalNodes>
          <leafValues>
            5.8379087597131729e-02 -8.0147290229797363e-01</leafValues></_>
        <_>
          <internalNodes>
            0 -1 136 -2.2231086040847003e-04</internalNodes>
          <leafValues>
            3.6435478925704956e-01 -2.0147763192653656e-01</leafValues></_>
        <_>
          <internalNodes>
            0 -1 91 2.4507439229637384e-03</internalNodes>
          <leafValues>
            1.3466341793537140e-01 -6.1606997251510620e-01</leafValues></_>
        <_>
          <internalNodes>
            0 -1 131 6.1801820993423462e-04</internalNodes>
          <leafValues>
            -1.4992986619472504e-01 5.6942665576934814e-01</leafValues></_>
        <_>
          <internalNodes>
            0 -1 80 -5.2540227770805359e-03</internalNodes>
          <leafValues>
            -7.6445966958999634e-01 1.0487260669469833e-01</leafValues></_>
        <_>
          <internalNodes>
            0 -1 16 2.6227068156003952e-04</internalNodes>
          <leafValues>
            6.8890161812305450e-02 -7.8685045242309570e-01</leafValues></_>
        <_>
          <internalNodes>
            0 -1 124 -1.4911807375028729e-04</internalNodes>
          <leafValues>
            4.5043396949768066e-01 -1.5613383054733276e-01</leafValues></_>
        <_>
          <internalNodes>
            0 -1 161 2.4495873367413878e-04</internalNodes>
          <leafValues>
            8.3952441811561584e-02 -7.9482722282409668e-01</leafValues></_>
        <_>
          <internalNodes>
            0 -1 5 1.9111325964331627e-03</internalNodes>
          <leafValues>
            -1.8442192673683167e-01 3.6786037683486938e-01</leafValues></_>
        <_>
          <internalNodes>
            0 -1 123 1.5522600733675063e-04</internalNodes>
          <leafValues>
            1.0917736589908600e-01 -6.6973912715911865e-01</leafValues></_>
        <_>
          <internalNodes>
            0 -1 105 1.2570715625770390e-04</internalNodes>
          <leafValues>
            -1.7520391941070557e-01 4.1912716627120972e-01</leafValues></_>
        <_>
          <internalNodes>
            0 -1 106 -1.6418803716078401e-04</internalNodes>
          <leafValues>
            4.1618415713310242e-01 -2.0559400320053101e-01</leafValues></_>
        <_>
          <internalNodes>
            0 -1 55 1.5542469918727875e-04</internalNodes>
          <leafValues>
            9.6306130290031433e-02 -8.4860712289810181e-01</leafValues></_>
        <_>
          <internalNodes>
            0 -1 38 3.0146325007081032e-03</internalNodes>
          <leafValues>
            -1.2069545686244965e-01 7.1168226003646851e-01</leafValues></_>
        <_>
          <internalNodes>
            0 -1 14 1.8961379828397185e-04</internalNodes>
          <leafValues>
            1.1788725852966309e-01 -7.1950531005859375e-01</leafValues></_></weakClassifiers></_></stages>
  <features>
    <_>
      <rects>
        <_>
          1 37 3 1 -1.</_>
        <_>
          2 37 1 1 3.</_></rects>
      <tilted>0</tilted></_>
    <_>
      <rects>
        <_>
          2 3 20 30 -1.</_>
        <_>
          2 3 10 15 2.</_>
        <_>
          12 18 10 15 2.</_></rects>
      <tilted>0</tilted></_>
    <_>
      <rects>
        <_>
          3 19 21 18 -1.</_>
        <_>
          10 19 7 18 3.</_></rects>
      <tilted>0</tilted></_>
    <_>
      <rects>
        <_>
          3 21 3 3 -1.</_>
        <_>
          3 22 3 1 3.</_></rects>
      <tilted>0</tilted></_>
    <_>
      <rects>
        <_>
          3 21 16 15 -1.</_>
        <_>
          11 21 8 15 2.</_></rects>
      <tilted>0</tilted></_>
    <_>
      <rects>
        <_>
          5 43 38 3 -1.</_>
        <_>
          5 44 38 1 3.</_></rects>
      <tilted>0</tilted></_>
    <_>
      <rects>
        <_>
          6 31 29 3 -1.</_>
        <_>
          6 32 29 1 3.</_></rects>
      <tilted>0</tilted></_>
    <_>
      <rects>
        <_>
          9 17 8 13 -1.</_>
        <_>
          13 17 4 13 2.</_></rects>
      <tilted>0</tilted></_>
    <_>
      <rects>
        <_>
          9 21 8 11 -1.</_>
        <_>
          13 21 4 11 2.</_></rects>
      <tilted>0</tilted></_>
    <_>
      <rects>
        <_>
          10 22 8 14 -1.</_>
        <_>
          10 22 4 7 2.</_>
        <_>
          14 29 4 7 2.</_></rects>
      <tilted>0</tilted></_>
    <_>
      <rects>
        <_>
          10 29 16 16 -1.</_>
        <_>
          10 29 8 8 2.</_>
        <_>
          18 37 8 8 2.</_></rects>
      <tilted>0</tilted></_>
    <_>
      <rects>
        <_>
          11 4 3 28 -1.</_>
        <_>
          12 4 1 28 3.</_></rects>
      <tilted>0</tilted></_>
    <_>
      <rects>
        <_>
          11 17 12 4 -1.</_>
        <_>
          11 17 6 2 2.</_>
        <_>
          17 19 6 2 2.</_></rects>
      <tilted>0</tilted></_>
    <_>
      <rects>
        <_>
          11 18 8 4 -1.</_>
        <_>
          11 18 4 2 2.</_>
        <_>
          15 20 4 2 2.</_></rects>
      <tilted>0</tilted></_>
    <_>
      <rects>
        <_>
          11 27 3 1 -1.</_>
        <_>
          12 27 1 1 3.</_></rects>
      <tilted>0</tilted></_>
    <_>
      <rects>
        <_>
          12 11 6 18 -1.</_>
        <_>
          12 11 3 9 2.</_>
        <_>
          15 20 3 9 2.</_></rects>
      <tilted>0</tilted></_>
    <_>
      <rects>
        <_>
          12 16 1 3 -1.</_>
        <_>
          12 17 1 1 3.</_></rects>
      <tilted>0</tilted></_>
    <_>
      <rects>
        <_>
          12 20 6 10 -1.</_>
        <_>
          15 20 3 10 2.</_></rects>
      <tilted>0</tilted></_>
    <_>
      <rects>
        <_>
          12 20 8 14 -1.</_>
        <_>
          16 20 4 14 2.</_></rects>
      <tilted>0</tilted></_>
    <_>
      <rects>
        <_>
          12 21 1 3 -1.</_>
        <_>
          12 22 1 1 3.</_></rects>
      <tilted>0</tilted></_>
    <_>
      <rects>
        <_>
          12 21 12 9 -1.</_>
        <_>
          16 21 4 9 3.</_></rects>
      <tilted>0</tilted></_>
    <_>
      <rects>
        <_>
          12 24 5 8 -1.</_>
        <_>
          12 28 5 4 2.</_></rects>
      <tilted>0</tilted></_>
    <_>
      <rects>
        <_>
          12 26 1 3 -1.</_>
        <_>
          12 27 1 1 3.</_></rects>
      <tilted>0</tilted></_>
    <_>
      <rects>
        <_>
          12 27 6 1 -1.</_>
        <_>
          15 27 3 1 2.</_></rects>
      <tilted>0</tilted></_>
    <_>
      <rects>
        <_>
          12 30 14 4 -1.</_>
        <_>
          19 30 7 4 2.</_></rects>
      <tilted>0</tilted></_>
    <_>
      <rects>
        <_>
          12 31 5 3 -1.</_>
        <_>
          12 32 5 1 3.</_></rects>
      <tilted>0</tilted></_>
    <_>
      <rects>
        <_>
          12 37 12 9 -1.</_>
        <_>
          12 40 12 3 3.</_></rects>
      <tilted>0</tilted></_>
    <_>
      <rects>
        <_>
          13 14 26 27 -1.</_>
        <_>
          13 23 26 9 3.</_></rects>
      <tilted>0</tilted></_>
    <_>
      <rects>
        <_>
          13 17 26 18 -1.</_>
        <_>
          13 17 13 9 2.</_>
        <_>
          26 26 13 9 2.</_></rects>
      <tilted>0</tilted></_>
    <_>
      <rects>
        <_>
          13 20 9 10 -1.</_>
        <_>
          16 20 3 10 3.</_></rects>
      <tilted>0</tilted></_>
    <_>
      <rects>
        <_>
          13 24 7 10 -1.</_>
        <_>
          13 29 7 5 2.</_></rects>
      <tilted>0</tilted></_>
    <_>
      <rects>
        <_>
          13 26 6 9 -1.</_>
        <_>
          16 26 3 9 2.</_></rects>
      <tilted>0</tilted></_>
    <_>
      <rects>
        <_>
          13 26 23 3 -1.</_>
        <_>
          13 27 23 1 3.</_></rects>
      <tilted>0</tilted></_>
    <_>
      <rects>
        <_>
          13 31 16 1 -1.</_>
        <_>
          21 31 8 1 2.</_></rects>
      <tilted>0</tilted></_>
    <_>
      <rects>
        <_>
          13 39 10 6 -1.</_>
        <_>
          13 41 10 2 3.</_></rects>
      <tilted>0</tilted></_>
    <_>
      <rects>
        <_>
          14 6 2 28 -1.</_>
        <_>
          14 20 2 14 2.</_></rects>
      <tilted>0</tilted></_>
    <_>
      <rects>
        <_>
          14 8 25 36 -1.</_>
        <_>
          14 20 25 12 3.</_></rects>
      <tilted>0</tilted></_>
    <_>
      <rects>
        <_>
          14 19 6 6 -1.</_>
        <_>
          14 19 3 3 2.</_>
        <_>
          17 22 3 3 2.</_></rects>
      <tilted>0</tilted></_>
    <_>
      <rects>
        <_>
          14 22 4 8 -1.</_>
        <_>
          14 22 2 4 2.</_>
        <_>
          16 26 2 4 2.</_></rects>
      <tilted>0</tilted></_>
    <_>
      <rects>
        <_>
          14 25 27 8 -1.</_>
        <_>
          23 25 9 8 3.</_></rects>
      <tilted>0</tilted></_>
    <_>
      <rects>
        <_>
          14 32 22 6 -1.</_>
        <_>
          14 34 22 2 3.</_></rects>
      <tilted>0</tilted></_>
    <_>
      <rects>
        <_>
          15 22 2 11 -1.</_>
        <_>
          16 22 1 11 2.</_></rects>
      <tilted>0</tilted></_>
    <_>
      <rects>
        <_>
          15 43 26 2 -1.</_>
        <_>
          15 44 26 1 2.</_></rects>
      <tilted>0</tilted></_>
    <_>
      <rects>
        <_>
          16 10 15 20 -1.</_>
        <_>
          16 20 15 10 2.</_></rects>
      <tilted>0</tilted></_>
    <_>
      <rects>
        <_>
          16 13 12 9 -1.</_>
        <_>
          16 16 12 3 3.</_></rects>
      <tilted>0</tilted></_>
    <_>
      <rects>
        <_>
          16 15 20 6 -1.</_>
        <_>
          16 17 20 2 3.</_></rects>
      <tilted>0</tilted></_>
    <_>
      <rects>
        <_>
          16 18 3 1 -1.</_>
        <_>
          17 18 1 1 3.</_></rects>
      <tilted>0</tilted></_>
    <_>
      <rects>
        <_>
          16 21 14 11 -1.</_>
        <_>
          23 21 7 11 2.</_></rects>
      <tilted>0</tilted></_>
    <_>
      <rects>
        <_>
          16 22 18 10 -1.</_>
        <_>
          22 22 6 10 3.</_></rects>
      <tilted>0</tilted></_>
    <_>
      <rects>
        <_>
          16 29 7 2 -1.</_>
        <_>
          16 30 7 1 2.</_></rects>
      <tilted>0</tilted></_>
    <_>
      <rects>
        <_>
          16 33 3 1 -1.</_>
        <_>
          17 33 1 1 3.</_></rects>
      <tilted>0</tilted></_>
    <_>
      <rects>
        <_>
          17 13 11 9 -1.</_>
        <_>
          17 16 11 3 3.</_></rects>
      <tilted>0</tilted></_>
    <_>
      <rects>
        <_>
          17 19 21 10 -1.</_>
        <_>
          24 19 7 10 3.</_></rects>
      <tilted>0</tilted></_>
    <_>
      <rects>
        <_>
          17 20 6 10 -1.</_>
        <_>
          20 20 3 10 2.</_></rects>
      <tilted>0</tilted></_>
    <_>
      <rects>
        <_>
          17 24 3 6 -1.</_>
        <_>
          17 26 3 2 3.</_></rects>
      <tilted>0</tilted></_>
    <_>
      <rects>
        <_>
          17 31 2 2 -1.</_>
        <_>
          17 31 1 1 2.</_>
        <_>
          18 32 1 1 2.</_></rects>
      <tilted>0</tilted></_>
    <_>
      <rects>
        <_>
          17 32 2 2 -1.</_>
        <_>
          17 32 1 1 2.</_>
        <_>
          18 33 1 1 2.</_></rects>
      <tilted>0</tilted></_>
    <_>
      <rects>
        <_>
          18 19 18 12 -1.</_>
        <_>
          24 19 6 12 3.</_></rects>
      <tilted>0</tilted></_>
    <_>
      <rects>
        <_>
          18 20 3 8 -1.</_>
        <_>
          19 20 1 8 3.</_></rects>
      <tilted>0</tilted></_>
    <_>
      <rects>
        <_>
          18 22 15 9 -1.</_>
        <_>
          23 22 5 9 3.</_></rects>
      <tilted>0</tilted></_>
    <_>
      <rects>
        <_>
          18 24 3 2 -1.</_>
        <_>
          19 24 1 2 3.</_></rects>
      <tilted>0</tilted></_>
    <_>
      <rects>
        <_>
          18 24 3 3 -1.</_>
        <_>
          19 24 1 3 3.</_></rects>
      <tilted>0</tilted></_>
    <_>
      <rects>
        <_>
          18 31 22 8 -1.</_>
        <_>
          18 35 22 4 2.</_></rects>
      <tilted>0</tilted></_>
    <_>
      <rects>
        <_>
          19 19 10 2 -1.</_>
        <_>
          19 19 5 1 2.</_>
        <_>
          24 20 5 1 2.</_></rects>
      <tilted>0</tilted></_>
    <_>
      <rects>
        <_>
          20 18 9 12 -1.</_>
        <_>
          23 18 3 12 3.</_></rects>
      <tilted>0</tilted></_>
    <_>
      <rects>
        <_>
          21 22 6 7 -1.</_>
        <_>
          24 22 3 7 2.</_></rects>
      <tilted>0</tilted></_>
    <_>
      <rects>
        <_>
          21 22 10 10 -1.</_>
        <_>
          21 27 10 5 2.</_></rects>
      <tilted>0</tilted></_>
    <_>
      <rects>
        <_>
          21 23 3 4 -1.</_>
        <_>
          22 23 1 4 3.</_></rects>
      <tilted>0</tilted></_>
    <_>
      <rects>
        <_>
          21 23 6 10 -1.</_>
        <_>
          21 28 6 5 2.</_></rects>
      <tilted>0</tilted></_>
    <_>
      <rects>
        <_>
          21 24 3 9 -1.</_>
        <_>
          22 24 1 9 3.</_></rects>
      <tilted>0</tilted></_>
    <_>
      <rects>
        <_>
          21 24 3 10 -1.</_>
        <_>
          22 24 1 10 3.</_></rects>
      <tilted>0</tilted></_>
    <_>
      <rects>
        <_>
          21 32 3 1 -1.</_>
        <_>
          22 32 1 1 3.</_></rects>
      <tilted>0</tilted></_>
    <_>
      <rects>
        <_>
          22 21 7 8 -1.</_>
        <_>
          22 25 7 4 2.</_></rects>
      <tilted>0</tilted></_>
    <_>
      <rects>
        <_>
          22 21 8 8 -1.</_>
        <_>
          22 25 8 4 2.</_></rects>
      <tilted>0</tilted></_>
    <_>
      <rects>
        <_>
          22 22 9 6 -1.</_>
        <_>
          25 22 3 6 3.</_></rects>
      <tilted>0</tilted></_>
    <_>
      <rects>
        <_>
          22 22 10 5 -1.</_>
        <_>
          27 22 5 5 2.</_></rects>
      <tilted>0</tilted></_>
    <_>
      <rects>
        <_>
          22 22 6 8 -1.</_>
        <_>
          22 26 6 4 2.</_></rects>
      <tilted>0</tilted></_>
    <_>
      <rects>
        <_>
          22 22 7 8 -1.</_>
        <_>
          22 26 7 4 2.</_></rects>
      <tilted>0</tilted></_>
    <_>
      <rects>
        <_>
          22 23 3 3 -1.</_>
        <_>
          22 24 3 1 3.</_></rects>
      <tilted>0</tilted></_>
    <_>
      <rects>
        <_>
          22 23 10 3 -1.</_>
        <_>
          27 23 5 3 2.</_></rects>
      <tilted>0</tilted></_>
    <_>
      <rects>
        <_>
          22 23 5 9 -1.</_>
        <_>
          22 26 5 3 3.</_></rects>
      <tilted>0</tilted></_>
    <_>
      <rects>
        <_>
          22 23 12 4 -1.</_>
        <_>
          28 23 6 4 2.</_></rects>
      <tilted>0</tilted></_>
    <_>
      <rects>
        <_>
          22 23 12 7 -1.</_>
        <_>
          28 23 6 7 2.</_></rects>
      <tilted>0</tilted></_>
    <_>
      <rects>
        <_>
          22 29 4 3 -1.</_>
        <_>
          22 30 4 1 3.</_></rects>
      <tilted>0</tilted></_>
    <_>
      <rects>
        <_>
          22 29 13 10 -1.</_>
        <_>
          22 34 13 5 2.</_></rects>
      <tilted>0</tilted></_>
    <_>
      <rects>
        <_>
          23 16 3 6 -1.</_>
        <_>
          23 18 3 2 3.</_></rects>
      <tilted>0</tilted></_>
    <_>
      <rects>
        <_>
          23 18 2 3 -1.</_>
        <_>
          23 19 2 1 3.</_></rects>
      <tilted>0</tilted></_>
    <_>
      <rects>
        <_>
          23 19 8 2 -1.</_>
        <_>
          23 19 4 1 2.</_>
        <_>
          27 20 4 1 2.</_></rects>
      <tilted>0</tilted></_>
    <_>
      <rects>
        <_>
          23 20 2 2 -1.</_>
        <_>
          23 21 2 1 2.</_></rects>
      <tilted>0</tilted></_>
    <_>
      <rects>
        <_>
          23 20 9 11 -1.</_>
        <_>
          26 20 3 11 3.</_></rects>
      <tilted>0</tilted></_>
    <_>
      <rects>
        <_>
          23 20 5 8 -1.</_>
        <_>
          23 24 5 4 2.</_></rects>
      <tilted>0</tilted></_>
    <_>
      <rects>
        <_>
          23 21 4 12 -1.</_>
        <_>
          23 25 4 4 3.</_></rects>
      <tilted>0</tilted></_>
    <_>
      <rects>
        <_>
          23 24 3 2 -1.</_>
        <_>
          24 24 1 2 3.</_></rects>
      <tilted>0</tilted></_>
    <_>
      <rects>
        <_>
          23 25 16 10 -1.</_>
        <_>
          23 25 8 5 2.</_>
        <_>
          31 30 8 5 2.</_></rects>
      <tilted>0</tilted></_>
    <_>
      <rects>
        <_>
          23 27 3 3 -1.</_>
        <_>
          24 27 1 3 3.</_></rects>
      <tilted>0</tilted></_>
    <_>
      <rects>
        <_>
          23 28 3 2 -1.</_>
        <_>
          24 28 1 2 3.</_></rects>
      <tilted>0</tilted></_>
    <_>
      <rects>
        <_>
          24 11 1 3 -1.</_>
        <_>
          24 12 1 1 3.</_></rects>
      <tilted>0</tilted></_>
    <_>
      <rects>
        <_>
          24 16 4 2 -1.</_>
        <_>
          24 17 4 1 2.</_></rects>
      <tilted>0</tilted></_>
    <_>
      <rects>
        <_>
          24 19 2 3 -1.</_>
        <_>
          24 20 2 1 3.</_></rects>
      <tilted>0</tilted></_>
    <_>
      <rects>
        <_>
          24 20 2 2 -1.</_>
        <_>
          24 21 2 1 2.</_></rects>
      <tilted>0</tilted></_>
    <_>
      <rects>
        <_>
          24 20 3 2 -1.</_>
        <_>
          24 21 3 1 2.</_></rects>
      <tilted>0</tilted></_>
    <_>
      <rects>
        <_>
          24 22 4 8 -1.</_>
        <_>
          24 26 4 4 2.</_></rects>
      <tilted>0</tilted></_>
    <_>
      <rects>
        <_>
          24 25 3 1 -1.</_>
        <_>
          25 25 1 1 3.</_></rects>
      <tilted>0</tilted></_>
    <_>
      <rects>
        <_>
          24 25 3 2 -1.</_>
        <_>
          25 25 1 2 3.</_></rects>
      <tilted>0</tilted></_>
    <_>
      <rects>
        <_>
          24 25 3 3 -1.</_>
        <_>
          25 25 1 3 3.</_></rects>
      <tilted>0</tilted></_>
    <_>
      <rects>
        <_>
          24 28 3 1 -1.</_>
        <_>
          25 28 1 1 3.</_></rects>
      <tilted>0</tilted></_>
    <_>
      <rects>
        <_>
          24 28 3 2 -1.</_>
        <_>
          25 28 1 2 3.</_></rects>
      <tilted>0</tilted></_>
    <_>
      <rects>
        <_>
          24 29 3 1 -1.</_>
        <_>
          25 29 1 1 3.</_></rects>
      <tilted>0</tilted></_>
    <_>
      <rects>
        <_>
          25 23 2 3 -1.</_>
        <_>
          25 24 2 1 3.</_></rects>
      <tilted>0</tilted></_>
    <_>
      <rects>
        <_>
          26 19 1 3 -1.</_>
        <_>
          26 20 1 1 3.</_></rects>
      <tilted>0</tilted></_>
    <_>
      <rects>
        <_>
          26 19 3 6 -1.</_>
        <_>
          27 19 1 6 3.</_></rects>
      <tilted>0</tilted></_>
    <_>
      <rects>
        <_>
          26 19 3 10 -1.</_>
        <_>
          27 19 1 10 3.</_></rects>
      <tilted>0</tilted></_>
    <_>
      <rects>
        <_>
          26 21 3 8 -1.</_>
        <_>
          26 25 3 4 2.</_></rects>
      <tilted>0</tilted></_>
    <_>
      <rects>
        <_>
          26 23 3 2 -1.</_>
        <_>
          27 23 1 2 3.</_></rects>
      <tilted>0</tilted></_>
    <_>
      <rects>
        <_>
          26 23 3 12 -1.</_>
        <_>
          27 23 1 12 3.</_></rects>
      <tilted>0</tilted></_>
    <_>
      <rects>
        <_>
          26 24 3 10 -1.</_>
        <_>
          27 24 1 10 3.</_></rects>
      <tilted>0</tilted></_>
    <_>
      <rects>
        <_>
          26 24 3 3 -1.</_>
        <_>
          26 25 3 1 3.</_></rects>
      <tilted>0</tilted></_>
    <_>
      <rects>
        <_>
          26 25 3 7 -1.</_>
        <_>
          27 25 1 7 3.</_></rects>
      <tilted>0</tilted></_>
    <_>
      <rects>
        <_>
          26 27 3 1 -1.</_>
        <_>
          27 27 1 1 3.</_></rects>
      <tilted>0</tilted></_>
    <_>
      <rects>
        <_>
          26 28 3 3 -1.</_>
        <_>
          27 28 1 3 3.</_></rects>
      <tilted>0</tilted></_>
    <_>
      <rects>
        <_>
          26 28 3 4 -1.</_>
        <_>
          27 28 1 4 3.</_></rects>
      <tilted>0</tilted></_>
    <_>
      <rects>
        <_>
          26 29 3 6 -1.</_>
        <_>
          26 31 3 2 3.</_></rects>
      <tilted>0</tilted></_>
    <_>
      <rects>
        <_>
          26 29 4 3 -1.</_>
        <_>
          26 30 4 1 3.</_></rects>
      <tilted>0</tilted></_>
    <_>
      <rects>
        <_>
          27 11 1 3 -1.</_>
        <_>
          27 12 1 1 3.</_></rects>
      <tilted>0</tilted></_>
    <_>
      <rects>
        <_>
          27 24 1 2 -1.</_>
        <_>
          27 25 1 1 2.</_></rects>
      <tilted>0</tilted></_>
    <_>
      <rects>
        <_>
          27 26 1 3 -1.</_>
        <_>
          27 27 1 1 3.</_></rects>
      <tilted>0</tilted></_>
    <_>
      <rects>
        <_>
          27 29 3 3 -1.</_>
        <_>
          27 30 3 1 3.</_></rects>
      <tilted>0</tilted></_>
    <_>
      <rects>
        <_>
          28 23 3 3 -1.</_>
        <_>
          29 23 1 3 3.</_></rects>
      <tilted>0</tilted></_>
    <_>
      <rects>
        <_>
          28 24 3 1 -1.</_>
        <_>
          29 24 1 1 3.</_></rects>
      <tilted>0</tilted></_>
    <_>
      <rects>
        <_>
          28 26 3 1 -1.</_>
        <_>
          29 26 1 1 3.</_></rects>
      <tilted>0</tilted></_>
    <_>
      <rects>
        <_>
          28 26 3 2 -1.</_>
        <_>
          29 26 1 2 3.</_></rects>
      <tilted>0</tilted></_>
    <_>
      <rects>
        <_>
          28 28 3 3 -1.</_>
        <_>
          28 29 3 1 3.</_></rects>
      <tilted>0</tilted></_>
    <_>
      <rects>
        <_>
          28 28 10 6 -1.</_>
        <_>
          28 28 5 3 2.</_>
        <_>
          33 31 5 3 2.</_></rects>
      <tilted>0</tilted></_>
    <_>
      <rects>
        <_>
          28 29 3 3 -1.</_>
        <_>
          28 30 3 1 3.</_></rects>
      <tilted>0</tilted></_>
    <_>
      <rects>
        <_>
          28 41 1 3 -1.</_>
        <_>
          28 42 1 1 3.</_></rects>
      <tilted>0</tilted></_>
    <_>
      <rects>
        <_>
          29 24 1 3 -1.</_>
        <_>
          29 25 1 1 3.</_></rects>
      <tilted>0</tilted></_>
    <_>
      <rects>
        <_>
          29 28 2 3 -1.</_>
        <_>
          29 29 2 1 3.</_></rects>
      <tilted>0</tilted></_>
    <_>
      <rects>
        <_>
          31 16 3 20 -1.</_>
        <_>
          32 16 1 20 3.</_></rects>
      <tilted>0</tilted></_>
    <_>
      <rects>
        <_>
          31 19 9 12 -1.</_>
        <_>
          34 19 3 12 3.</_></rects>
      <tilted>0</tilted></_>
    <_>
      <rects>
        <_>
          31 21 6 9 -1.</_>
        <_>
          34 21 3 9 2.</_></rects>
      <tilted>0</tilted></_>
    <_>
      <rects>
        <_>
          31 21 7 4 -1.</_>
        <_>
          31 23 7 2 2.</_></rects>
      <tilted>0</tilted></_>
    <_>
      <rects>
        <_>
          31 31 3 4 -1.</_>
        <_>
          32 31 1 4 3.</_></rects>
      <tilted>0</tilted></_>
    <_>
      <rects>
        <_>
          31 35 3 1 -1.</_>
        <_>
          32 35 1 1 3.</_></rects>
      <tilted>0</tilted></_>
    <_>
      <rects>
        <_>
          32 22 18 28 -1.</_>
        <_>
          32 22 9 14 2.</_>
        <_>
          41 36 9 14 2.</_></rects>
      <tilted>0</tilted></_>
    <_>
      <rects>
        <_>
          33 25 6 6 -1.</_>
        <_>
          33 25 3 3 2.</_>
        <_>
          36 28 3 3 2.</_></rects>
      <tilted>0</tilted></_>
    <_>
      <rects>
        <_>
          34 16 8 8 -1.</_>
        <_>
          34 16 4 4 2.</_>
        <_>
          38 20 4 4 2.</_></rects>
      <tilted>0</tilted></_>
    <_>
      <rects>
        <_>
          34 18 6 13 -1.</_>
        <_>
          36 18 2 13 3.</_></rects>
      <tilted>0</tilted></_>
    <_>
      <rects>
        <_>
          34 20 2 10 -1.</_>
        <_>
          35 20 1 10 2.</_></rects>
      <tilted>0</tilted></_>
    <_>
      <rects>
        <_>
          34 20 2 13 -1.</_>
        <_>
          35 20 1 13 2.</_></rects>
      <tilted>0</tilted></_>
    <_>
      <rects>
        <_>
          34 20 12 12 -1.</_>
        <_>
          38 20 4 12 3.</_></rects>
      <tilted>0</tilted></_>
    <_>
      <rects>
        <_>
          34 23 3 5 -1.</_>
        <_>
          35 23 1 5 3.</_></rects>
      <tilted>0</tilted></_>
    <_>
      <rects>
        <_>
          34 23 6 8 -1.</_>
        <_>
          34 23 3 4 2.</_>
        <_>
          37 27 3 4 2.</_></rects>
      <tilted>0</tilted></_>
    <_>
      <rects>
        <_>
          34 25 2 3 -1.</_>
        <_>
          35 25 1 3 2.</_></rects>
      <tilted>0</tilted></_>
    <_>
      <rects>
        <_>
          34 26 8 10 -1.</_>
        <_>
          34 26 4 5 2.</_>
        <_>
          38 31 4 5 2.</_></rects>
      <tilted>0</tilted></_>
    <_>
      <rects>
        <_>
          34 26 10 10 -1.</_>
        <_>
          34 26 5 5 2.</_>
        <_>
          39 31 5 5 2.</_></rects>
      <tilted>0</tilted></_>
    <_>
      <rects>
        <_>
          35 20 12 11 -1.</_>
        <_>
          41 20 6 11 2.</_></rects>
      <tilted>0</tilted></_>
    <_>
      <rects>
        <_>
          36 18 8 16 -1.</_>
        <_>
          40 18 4 16 2.</_></rects>
      <tilted>0</tilted></_>
    <_>
      <rects>
        <_>
          36 20 2 13 -1.</_>
        <_>
          37 20 1 13 2.</_></rects>
      <tilted>0</tilted></_>
    <_>
      <rects>
        <_>
          36 22 4 9 -1.</_>
        <_>
          38 22 2 9 2.</_></rects>
      <tilted>0</tilted></_>
    <_>
      <rects>
        <_>
          36 22 6 14 -1.</_>
        <_>
          36 22 3 7 2.</_>
        <_>
          39 29 3 7 2.</_></rects>
      <tilted>0</tilted></_>
    <_>
      <rects>
        <_>
          36 25 2 2 -1.</_>
        <_>
          37 25 1 2 2.</_></rects>
      <tilted>0</tilted></_>
    <_>
      <rects>
        <_>
          36 31 3 1 -1.</_>
        <_>
          37 31 1 1 3.</_></rects>
      <tilted>0</tilted></_>
    <_>
      <rects>
        <_>
          37 20 2 14 -1.</_>
        <_>
          38 20 1 14 2.</_></rects>
      <tilted>0</tilted></_></features></cascade>
</opencv_storage>
